<?xml version="1.0"?>
<opencv_storage>
<cascade>
  <stageType>BOOST</stageType>
  <featureType>HAAR</featureType>
  <height>24</height>
  <width>24</width>
  <stageParams>
    <boostType>GAB</boostType>
    <minHitRate>9.4999998807907104e-01</minHitRate>
    <maxFalseAlarm>5.0000000000000000e-01</maxFalseAlarm>
    <weightTrimRate>9.4999999999999996e-01</weightTrimRate>
    <maxDepth>1</maxDepth>
    <maxWeakCount>100</maxWeakCount></stageParams>
  <featureParams>
    <maxCatCount>0</maxCatCount>
    <featSize>1</featSize>
    <mode>BASIC</mode></featureParams>
  <stageNum>11</stageNum>
  <stages>
    <!-- stage 0 -->
    <_>
      <maxWeakCount>2</maxWeakCount>
      <stageThreshold>-3.8702854514122009e-01</stageThreshold>
      <weakClassifiers>
        <_>
          <internalNodes>
            0 -1 28 -6.8737760186195374e-02</internalNodes>
          <leafValues>
            8.3647799491882324e-01 -9.5252227783203125e-01</leafValues></_>
        <_>
          <internalNodes>
            0 -1 32 -1.0350774973630905e-02</internalNodes>
          <leafValues>
            5.6549370288848877e-01 -8.4457439184188843e-01</leafValues></_></weakClassifiers></_>
    <!-- stage 1 -->
    <_>
      <maxWeakCount>3</maxWeakCount>
      <stageThreshold>-1.1952210664749146e+00</stageThreshold>
      <weakClassifiers>
        <_>
          <internalNodes>
            0 -1 18 1.1341534554958344e-01</internalNodes>
          <leafValues>
            -8.5242718458175659e-01 3.4285715222358704e-01</leafValues></_>
        <_>
          <internalNodes>
            0 -1 25 -9.9340215325355530e-02</internalNodes>
          <leafValues>
            4.8894327878952026e-01 -7.5881344079971313e-01</leafValues></_>
        <_>
          <internalNodes>
            0 -1 0 1.8562499899417162e-03</internalNodes>
          <leafValues>
            -7.6014238595962524e-01 4.1601961851119995e-01</leafValues></_></weakClassifiers></_>
    <!-- stage 2 -->
    <_>
      <maxWeakCount>3</maxWeakCount>
      <stageThreshold>-1.1756490468978882e+00</stageThreshold>
      <weakClassifiers>
        <_>
          <internalNodes>
            0 -1 7 -5.3791971877217293e-03</internalNodes>
          <leafValues>
            -8.3700440824031830e-02 -8.6002123355865479e-01</leafValues></_>
        <_>
          <internalNodes>
            0 -1 16 2.4454738944768906e-02</internalNodes>
          <leafValues>
            -6.6439002752304077e-01 3.4118840098381042e-01</leafValues></_>
        <_>
          <internalNodes>
            0 -1 10 -1.0630454868078232e-01</internalNodes>
          <leafValues>
            6.8635165691375732e-01 -4.2755854129791260e-01</leafValues></_></weakClassifiers></_>
    <!-- stage 3 -->
    <_>
      <maxWeakCount>4</maxWeakCount>
      <stageThreshold>-1.1811181306838989e+00</stageThreshold>
      <weakClassifiers>
        <_>
          <internalNodes>
            0 -1 35 1.5552741475403309e-02</internalNodes>
          <leafValues>
            -8.4648185968399048e-01 -1.5517240762710571e-01</leafValues></_>
        <_>
          <internalNodes>
            0 -1 19 1.1683815717697144e-01</internalNodes>
          <leafValues>
            -7.0894545316696167e-01 1.6148105263710022e-01</leafValues></_>
        <_>
          <internalNodes>
            0 -1 40 4.3121330236317590e-05</internalNodes>
          <leafValues>
            -5.2192801237106323e-01 3.7847587466239929e-01</leafValues></_>
        <_>
          <internalNodes>
            0 -1 2 2.9353601858019829e-03</internalNodes>
          <leafValues>
            -6.6549873352050781e-01 3.0234014987945557e-01</leafValues></_></weakClassifiers></_>
    <!-- stage 4 -->
    <_>
      <maxWeakCount>4</maxWeakCount>
      <stageThreshold>-1.0678628683090210e+00</stageThreshold>
      <weakClassifiers>
        <_>
          <internalNodes>
            0 -1 14 2.0818032324314117e-01</internalNodes>
          <leafValues>
            -8.2208591699600220e-01 -1.3541667163372040e-01</leafValues></_>
        <_>
          <internalNodes>
            0 -1 20 -1.3662090897560120e-01</internalNodes>
          <leafValues>
            2.0553269982337952e-01 -6.8845814466476440e-01</leafValues></_>
        <_>
          <internalNodes>
            0 -1 13 4.4031105935573578e-03</internalNodes>
          <leafValues>
            -6.7754703760147095e-01 2.2450345754623413e-01</leafValues></_>
        <_>
          <internalNodes>
            0 -1 37 2.2373422980308533e-03</internalNodes>
          <leafValues>
            -4.6849152445793152e-01 3.9541456103324890e-01</leafValues></_></weakClassifiers></_>
    <!-- stage 5 -->
    <_>
      <maxWeakCount>4</maxWeakCount>
      <stageThreshold>-1.0365147590637207e+00</stageThreshold>
      <weakClassifiers>
        <_>
          <internalNodes>
            0 -1 5 -2.1174762398004532e-02</internalNodes>
          <leafValues>
            -1.2195122241973877e-01 -8.0516898632049561e-01</leafValues></_>
        <_>
          <internalNodes>
            0 -1 6 -2.3112252354621887e-02</internalNodes>
          <leafValues>
            3.0279299616813660e-01 -5.3544104099273682e-01</leafValues></_>
        <_>
          <internalNodes>
            0 -1 42 1.2505284976214170e-03</internalNodes>
          <leafValues>
            -6.2465274333953857e-01 2.8849530220031738e-01</leafValues></_>
        <_>
          <internalNodes>
            0 -1 31 -7.2531485930085182e-03</internalNodes>
          <leafValues>
            2.5660243630409241e-01 -6.6761785745620728e-01</leafValues></_></weakClassifiers></_>
    <!-- stage 6 -->
    <_>
      <maxWeakCount>5</maxWeakCount>
      <stageThreshold>-1.3126528263092041e+00</stageThreshold>
      <weakClassifiers>
        <_>
          <internalNodes>
            0 -1 21 -1.2899667024612427e-01</internalNodes>
          <leafValues>
            6.0000002384185791e-01 -7.6177775859832764e-01</leafValues></_>
        <_>
          <internalNodes>
            0 -1 12 -1.2746161222457886e-01</internalNodes>
          <leafValues>
            5.1929914951324463e-01 -4.9493223428726196e-01</leafValues></_>
        <_>
          <internalNodes>
            0 -1 38 -9.6494716126471758e-04</internalNodes>
          <leafValues>
            2.2210982441902161e-01 -7.9234451055526733e-01</leafValues></_>
        <_>
          <internalNodes>
            0 -1 3 -8.3508166426327080e-05</internalNodes>
          <leafValues>
            2.8623911738395691e-01 -5.4932999610900879e-01</leafValues></_>
        <_>
          <internalNodes>
            0 -1 4 -3.1856778077781200e-03</internalNodes>
          <leafValues>
            3.1511560082435608e-01 -5.6429177522659302e-01</leafValues></_></weakClassifiers></_>
    <!-- stage 7 -->
    <_>
      <maxWeakCount>4</maxWeakCount>
      <stageThreshold>-1.1820816993713379e+00</stageThreshold>
      <weakClassifiers>
        <_>
          <internalNodes>
            0 -1 22 -7.6715335249900818e-02</internalNodes>
          <leafValues>
            4.2372882366180420e-01 -7.6957696676254272e-01</leafValues></_>
        <_>
          <internalNodes>
            0 -1 15 7.6535128057003021e-02</internalNodes>
          <leafValues>
            -5.7011467218399048e-01 1.9335092604160309e-01</leafValues></_>
        <_>
          <internalNodes>
            0 -1 23 1.9556642509996891e-03</internalNodes>
          <leafValues>
            1.7357234656810760e-01 -8.5988348722457886e-01</leafValues></_>
        <_>
          <internalNodes>
            0 -1 27 -1.3424213975667953e-03</internalNodes>
          <leafValues>
            -7.7942800521850586e-01 2.3787413537502289e-01</leafValues></_></weakClassifiers></_>
    <!-- stage 8 -->
    <_>
      <maxWeakCount>4</maxWeakCount>
      <stageThreshold>-9.9250179529190063e-01</stageThreshold>
      <weakClassifiers>
        <_>
          <internalNodes>
            0 -1 29 1.7512908205389977e-02</internalNodes>
          <leafValues>
            -7.5422972440719604e-01 3.6170211434364319e-01</leafValues></_>
        <_>
          <internalNodes>
            0 -1 17 1.7159348726272583e-01</internalNodes>
          <leafValues>
            -4.7396686673164368e-01 3.3442693948745728e-01</leafValues></_>
        <_>
          <internalNodes>
            0 -1 1 1.4146285131573677e-02</internalNodes>
          <leafValues>
            1.6195192933082581e-01 -8.6535531282424927e-01</leafValues></_>
        <_>
          <internalNodes>
            0 -1 8 -2.3395286407321692e-03</internalNodes>
          <leafValues>
            2.9265630245208740e-01 -5.4125952720642090e-01</leafValues></_></weakClassifiers></_>
    <!-- stage 9 -->
    <_>
      <maxWeakCount>4</maxWeakCount>
      <stageThreshold>-1.0507600307464600e+00</stageThreshold>
      <weakClassifiers>
        <_>
          <internalNodes>
            0 -1 33 -2.2186089307069778e-02</internalNodes>
          <leafValues>
            -1.1494252830743790e-02 -7.6546627283096313e-01</leafValues></_>
        <_>
          <internalNodes>
            0 -1 9 -4.7551577154081315e-05</internalNodes>
          <leafValues>
            1.0307972133159637e-01 -6.4378309249877930e-01</leafValues></_>
        <_>
          <internalNodes>
            0 -1 39 4.0913708508014679e-03</internalNodes>
          <leafValues>
            -3.8691672682762146e-01 3.7899267673492432e-01</leafValues></_>
        <_>
          <internalNodes>
            0 -1 30 1.9619977101683617e-02</internalNodes>
          <leafValues>
            -7.6736611127853394e-01 1.9169430434703827e-01</leafValues></_></weakClassifiers></_>
    <!-- stage 10 -->
    <_>
      <maxWeakCount>6</maxWeakCount>
      <stageThreshold>-1.1045932769775391e+00</stageThreshold>
      <weakClassifiers>
        <_>
          <internalNodes>
            0 -1 34 -4.1524553671479225e-03</internalNodes>
          <leafValues>
            2.8000000119209290e-01 -7.5357145071029663e-01</leafValues></_>
        <_>
          <internalNodes>
            0 -1 11 -2.8262590058147907e-03</internalNodes>
          <leafValues>
            4.9192316830158234e-02 -6.9059246778488159e-01</leafValues></_>
        <_>
          <internalNodes>
            0 -1 41 1.0865924414247274e-03</internalNodes>
          <leafValues>
            -4.7073122859001160e-01 2.8459811210632324e-01</leafValues></_>
        <_>
          <internalNodes>
            0 -1 36 3.3704880625009537e-03</internalNodes>
          <leafValues>
            -3.7811738252639771e-01 3.5963022708892822e-01</leafValues></_>
        <_>
          <internalNodes>
            0 -1 24 4.9354930524714291e-05</internalNodes>
          <leafValues>
            -4.7901690006256104e-01 3.2200899720191956e-01</leafValues></_>
        <_>
          <internalNodes>
            0 -1 26 1.5694145113229752e-02</internalNodes>
          <leafValues>
            1.7435920238494873e-01 -8.9226347208023071e-01</leafValues></_></weakClassifiers></_></stages>
  <features>
    <_>
      <rects>
        <_>
          0 0 1 8 -1.</_>
        <_>
          0 4 1 4 2.</_></rects>
      <tilted>0</tilted></_>
    <_>
      <rects>
        <_>
          0 0 20 8 -1.</_>
        <_>
          0 0 10 4 2.</_>
        <_>
          10 4 10 4 2.</_></rects>
      <tilted>0</tilted></_>
    <_>
      <rects>
        <_>
          0 0 24 4 -1.</_>
        <_>
          0 2 24 2 2.</_></rects>
      <tilted>0</tilted></_>
    <_>
      <rects>
        <_>
          0 9 2 7 -1.</_>
        <_>
          1 9 1 7 2.</_></rects>
      <tilted>0</tilted></_>
    <_>
      <rects>
        <_>
          0 9 3 10 -1.</_>
        <_>
          0 14 3 5 2.</_></rects>
      <tilted>0</tilted></_>
    <_>
      <rects>
        <_>
          0 10 4 10 -1.</_>
        <_>
          2 10 2 10 2.</_></rects>
      <tilted>0</tilted></_>
    <_>
      <rects>
        <_>
          0 13 8 8 -1.</_>
        <_>
          0 13 4 4 2.</_>
        <_>
          4 17 4 4 2.</_></rects>
      <tilted>0</tilted></_>
    <_>
      <rects>
        <_>
          0 17 4 3 -1.</_>
        <_>
          2 17 2 3 2.</_></rects>
      <tilted>0</tilted></_>
    <_>
      <rects>
        <_>
          0 20 6 2 -1.</_>
        <_>
          3 20 3 2 2.</_></rects>
      <tilted>0</tilted></_>
    <_>
      <rects>
        <_>
          1 9 2 1 -1.</_>
        <_>
          2 9 1 1 2.</_></rects>
      <tilted>0</tilted></_>
    <_>
      <rects>
        <_>
          1 15 20 9 -1.</_>
        <_>
          1 18 20 3 3.</_></rects>
      <tilted>0</tilted></_>
    <_>
      <rects>
        <_>
          2 6 1 14 -1.</_>
        <_>
          2 13 1 7 2.</_></rects>
      <tilted>0</tilted></_>
    <_>
      <rects>
        <_>
          2 13 19 6 -1.</_>
        <_>
          2 16 19 3 2.</_></rects>
      <tilted>0</tilted></_>
    <_>
      <rects>
        <_>
          3 0 18 1 -1.</_>
        <_>
          9 0 6 1 3.</_></rects>
      <tilted>0</tilted></_>
    <_>
      <rects>
        <_>
          3 1 15 19 -1.</_>
        <_>
          8 1 5 19 3.</_></rects>
      <tilted>0</tilted></_>
    <_>
      <rects>
        <_>
          3 11 19 9 -1.</_>
        <_>
          3 14 19 3 3.</_></rects>
      <tilted>0</tilted></_>
    <_>
      <rects>
        <_>
          4 0 15 3 -1.</_>
        <_>
          9 0 5 3 3.</_></rects>
      <tilted>0</tilted></_>
    <_>
      <rects>
        <_>
          4 0 18 14 -1.</_>
        <_>
          10 0 6 14 3.</_></rects>
      <tilted>0</tilted></_>
    <_>
      <rects>
        <_>
          5 0 12 19 -1.</_>
        <_>
          9 0 4 19 3.</_></rects>
      <tilted>0</tilted></_>
    <_>
      <rects>
        <_>
          5 3 8 21 -1.</_>
        <_>
          5 10 8 7 3.</_></rects>
      <tilted>0</tilted></_>
    <_>
      <rects>
        <_>
          6 11 14 10 -1.</_>
        <_>
          6 16 14 5 2.</_></rects>
      <tilted>0</tilted></_>
    <_>
      <rects>
        <_>
          6 15 8 8 -1.</_>
        <_>
          6 19 8 4 2.</_></rects>
      <tilted>0</tilted></_>
    <_>
      <rects>
        <_>
          6 17 9 6 -1.</_>
        <_>
          6 20 9 3 2.</_></rects>
      <tilted>0</tilted></_>
    <_>
      <rects>
        <_>
          7 2 10 3 -1.</_>
        <_>
          7 3 10 1 3.</_></rects>
      <tilted>0</tilted></_>
    <_>
      <rects>
        <_>
          7 10 2 1 -1.</_>
        <_>
          8 10 1 1 2.</_></rects>
      <tilted>0</tilted></_>
    <_>
      <rects>
        <_>
          7 13 13 8 -1.</_>
        <_>
          7 17 13 4 2.</_></rects>
      <tilted>0</tilted></_>
    <_>
      <rects>
        <_>
          8 1 6 12 -1.</_>
        <_>
          8 5 6 4 3.</_></rects>
      <tilted>0</tilted></_>
    <_>
      <rects>
        <_>
          8 2 9 3 -1.</_>
        <_>
          8 3 9 1 3.</_></rects>
      <tilted>0</tilted></_>
    <_>
      <rects>
        <_>
          8 11 7 12 -1.</_>
        <_>
          8 17 7 6 2.</_></rects>
      <tilted>0</tilted></_>
    <_>
      <rects>
        <_>
          9 19 6 4 -1.</_>
        <_>
          9 19 3 2 2.</_>
        <_>
          12 21 3 2 2.</_></rects>
      <tilted>0</tilted></_>
    <_>
      <rects>
        <_>
          10 10 14 14 -1.</_>
        <_>
          10 10 7 7 2.</_>
        <_>
          17 17 7 7 2.</_></rects>
      <tilted>0</tilted></_>
    <_>
      <rects>
        <_>
          12 17 12 6 -1.</_>
        <_>
          16 17 4 6 3.</_></rects>
      <tilted>0</tilted></_>
    <_>
      <rects>
        <_>
          13 15 6 6 -1.</_>
        <_>
          13 18 6 3 2.</_></rects>
      <tilted>0</tilted></_>
    <_>
      <rects>
        <_>
          14 17 4 4 -1.</_>
        <_>
          14 19 4 2 2.</_></rects>
      <tilted>0</tilted></_>
    <_>
      <rects>
        <_>
          17 18 1 3 -1.</_>
        <_>
          17 19 1 1 3.</_></rects>
      <tilted>0</tilted></_>
    <_>
      <rects>
        <_>
          18 17 6 4 -1.</_>
        <_>
          21 17 3 4 2.</_></rects>
      <tilted>0</tilted></_>
    <_>
      <rects>
        <_>
          19 11 1 9 -1.</_>
        <_>
          19 14 1 3 3.</_></rects>
      <tilted>0</tilted></_>
    <_>
      <rects>
        <_>
          19 17 4 6 -1.</_>
        <_>
          19 20 4 3 2.</_></rects>
      <tilted>0</tilted></_>
    <_>
      <rects>
        <_>
          20 3 2 18 -1.</_>
        <_>
          20 12 2 9 2.</_></rects>
      <tilted>0</tilted></_>
    <_>
      <rects>
        <_>
          21 0 3 4 -1.</_>
        <_>
          21 2 3 2 2.</_></rects>
      <tilted>0</tilted></_>
    <_>
      <rects>
        <_>
          21 10 2 1 -1.</_>
        <_>
          22 10 1 1 2.</_></rects>
      <tilted>0</tilted></_>
    <_>
      <rects>
        <_>
          22 8 2 9 -1.</_>
        <_>
          23 8 1 9 2.</_></rects>
      <tilted>0</tilted></_>
    <_>
      <rects>
        <_>
          23 0 1 10 -1.</_>
        <_>
          23 5 1 5 2.</_></rects>
      <tilted>0</tilted></_></features></cascade>
</opencv_storage>
